digraph Tree {
node [shape=box] ;
0 [label="OverTime <= 0.5\ngini = 0.5\nsamples = 1029\nvalue = [514.5, 514.5]"] ;
1 [label="TotalWorkingYears <= 2.5\ngini = 0.463\nsamples = 731\nvalue = [394.47, 225.094]"] ;
0 -> 1 [labeldistance=2.5, labelangle=45, headlabel="True"] ;
2 [label="Age <= 34.5\ngini = 0.402\nsamples = 66\nvalue = [25.936, 67.236]"] ;
1 -> 2 ;
3 [label="jobrole_ResearchSci <= 0.5\ngini = 0.358\nsamples = 57\nvalue = [20.508, 67.236]"] ;
2 -> 3 ;
4 [label="PercentSalaryHike <= 11.5\ngini = 0.275\nsamples = 41\nvalue = [12.063, 61.389]"] ;
3 -> 4 ;
5 [label="gini = 0.0\nsamples = 4\nvalue = [2.413, 0.0]"] ;
4 -> 5 ;
6 [label="EmployeeNumber <= 54.5\ngini = 0.235\nsamples = 37\nvalue = [9.651, 61.389]"] ;
4 -> 6 ;
7 [label="gini = 0.0\nsamples = 2\nvalue = [1.206, 0.0]"] ;
6 -> 7 ;
8 [label="degree_Other <= 0.5\ngini = 0.213\nsamples = 35\nvalue = [8.444, 61.389]"] ;
6 -> 8 ;
9 [label="StockOptionLevel <= 2.5\ngini = 0.189\nsamples = 33\nvalue = [7.238, 61.389]"] ;
8 -> 9 ;
10 [label="MonthlyIncome <= 1066.5\ngini = 0.163\nsamples = 31\nvalue = [6.032, 61.389]"] ;
9 -> 10 ;
11 [label="gini = 0.0\nsamples = 1\nvalue = [0.603, 0.0]"] ;
10 -> 11 ;
12 [label="MonthlyIncome <= 3003.0\ngini = 0.149\nsamples = 30\nvalue = [5.428, 61.389]"] ;
10 -> 12 ;
13 [label="HourlyRate <= 63.5\ngini = 0.135\nsamples = 29\nvalue = [4.825, 61.389]"] ;
12 -> 13 ;
14 [label="JobInvolvement <= 3.5\ngini = 0.033\nsamples = 13\nvalue = [0.603, 35.08]"] ;
13 -> 14 ;
15 [label="gini = 0.0\nsamples = 11\nvalue = [0.0, 32.156]"] ;
14 -> 15 ;
16 [label="TrainingTimesLastYear <= 2.5\ngini = 0.284\nsamples = 2\nvalue = [0.603, 2.923]"] ;
14 -> 16 ;
17 [label="gini = 0.0\nsamples = 1\nvalue = [0.603, 0.0]"] ;
16 -> 17 ;
18 [label="gini = -0.0\nsamples = 1\nvalue = [0.0, 2.923]"] ;
16 -> 18 ;
19 [label="ms_Divorced <= 0.5\ngini = 0.238\nsamples = 16\nvalue = [4.222, 26.31]"] ;
13 -> 19 ;
20 [label="gender_Female <= 0.5\ngini = 0.185\nsamples = 14\nvalue = [3.016, 26.31]"] ;
19 -> 20 ;
21 [label="gini = 0.0\nsamples = 7\nvalue = [0.0, 20.463]"] ;
20 -> 21 ;
22 [label="HourlyRate <= 88.0\ngini = 0.449\nsamples = 7\nvalue = [3.016, 5.847]"] ;
20 -> 22 ;
23 [label="gini = -0.0\nsamples = 4\nvalue = [2.413, 0.0]"] ;
22 -> 23 ;
24 [label="TotalWorkingYears <= 0.5\ngini = 0.17\nsamples = 3\nvalue = [0.603, 5.847]"] ;
22 -> 24 ;
25 [label="gini = 0.0\nsamples = 1\nvalue = [0.603, 0.0]"] ;
24 -> 25 ;
26 [label="gini = 0.0\nsamples = 2\nvalue = [0.0, 5.847]"] ;
24 -> 26 ;
27 [label="gini = 0.0\nsamples = 2\nvalue = [1.206, 0.0]"] ;
19 -> 27 ;
28 [label="gini = 0.0\nsamples = 1\nvalue = [0.603, 0.0]"] ;
12 -> 28 ;
29 [label="gini = 0.0\nsamples = 2\nvalue = [1.206, 0.0]"] ;
9 -> 29 ;
30 [label="gini = 0.0\nsamples = 2\nvalue = [1.206, 0.0]"] ;
8 -> 30 ;
31 [label="DistanceFromHome <= 7.5\ngini = 0.483\nsamples = 16\nvalue = [8.444, 5.847]"] ;
3 -> 31 ;
32 [label="gini = -0.0\nsamples = 10\nvalue = [6.032, 0.0]"] ;
31 -> 32 ;
33 [label="YearsInCurrentRole <= 0.5\ngini = 0.414\nsamples = 6\nvalue = [2.413, 5.847]"] ;
31 -> 33 ;
34 [label="gini = 0.0\nsamples = 2\nvalue = [0.0, 5.847]"] ;
33 -> 34 ;
35 [label="gini = 0.0\nsamples = 4\nvalue = [2.413, 0.0]"] ;
33 -> 35 ;
36 [label="gini = 0.0\nsamples = 9\nvalue = [5.428, 0.0]"] ;
2 -> 36 ;
37 [label="StockOptionLevel <= 0.5\ngini = 0.42\nsamples = 665\nvalue = [368.534, 157.858]"] ;
1 -> 37 ;
38 [label="YearsInCurrentRole <= 3.5\ngini = 0.488\nsamples = 251\nvalue = [131.49, 96.469]"] ;
37 -> 38 ;
39 [label="NumCompaniesWorked <= 4.5\ngini = 0.497\nsamples = 128\nvalue = [62.126, 73.082]"] ;
38 -> 39 ;
40 [label="JobSatisfaction <= 1.5\ngini = 0.483\nsamples = 96\nvalue = [50.666, 35.08]"] ;
39 -> 40 ;
41 [label="DistanceFromHome <= 5.0\ngini = 0.395\nsamples = 14\nvalue = [5.428, 14.616]"] ;
40 -> 41 ;
42 [label="gini = 0.0\nsamples = 7\nvalue = [4.222, 0.0]"] ;
41 -> 42 ;
43 [label="MonthlyIncome <= 5030.5\ngini = 0.141\nsamples = 7\nvalue = [1.206, 14.616]"] ;
41 -> 43 ;
44 [label="WorkLifeBalance <= 3.5\ngini = 0.076\nsamples = 6\nvalue = [0.603, 14.616]"] ;
43 -> 44 ;
45 [label="gini = 0.0\nsamples = 5\nvalue = [0.0, 14.616]"] ;
44 -> 45 ;
46 [label="gini = -0.0\nsamples = 1\nvalue = [0.603, 0.0]"] ;
44 -> 46 ;
47 [label="gini = -0.0\nsamples = 1\nvalue = [0.603, 0.0]"] ;
43 -> 47 ;
48 [label="YearsWithCurrManager <= 4.5\ngini = 0.429\nsamples = 82\nvalue = [45.237, 20.463]"] ;
40 -> 48 ;
49 [label="MonthlyRate <= 25064.0\ngini = 0.34\nsamples = 74\nvalue = [42.222, 11.693]"] ;
48 -> 49 ;
50 [label="Age <= 54.5\ngini = 0.221\nsamples = 69\nvalue = [40.412, 5.847]"] ;
49 -> 50 ;
51 [label="YearsAtCompany <= 0.5\ngini = 0.127\nsamples = 67\nvalue = [39.809, 2.923]"] ;
50 -> 51 ;
52 [label="MonthlyRate <= 14279.5\ngini = 0.284\nsamples = 2\nvalue = [0.603, 2.923]"] ;
51 -> 52 ;
53 [label="gini = 0.0\nsamples = 1\nvalue = [0.603, 0.0]"] ;
52 -> 53 ;
54 [label="gini = -0.0\nsamples = 1\nvalue = [0.0, 2.923]"] ;
52 -> 54 ;
55 [label="gini = 0.0\nsamples = 65\nvalue = [39.206, 0.0]"] ;
51 -> 55 ;
56 [label="degree_LifeSci <= 0.5\ngini = 0.284\nsamples = 2\nvalue = [0.603, 2.923]"] ;
50 -> 56 ;
57 [label="gini = 0.0\nsamples = 1\nvalue = [0.603, 0.0]"] ;
56 -> 57 ;
58 [label="gini = -0.0\nsamples = 1\nvalue = [0.0, 2.923]"] ;
56 -> 58 ;
59 [label="HourlyRate <= 78.5\ngini = 0.361\nsamples = 5\nvalue = [1.809, 5.847]"] ;
49 -> 59 ;
60 [label="gini = 0.0\nsamples = 2\nvalue = [0.0, 5.847]"] ;
59 -> 60 ;
61 [label="gini = 0.0\nsamples = 3\nvalue = [1.809, 0.0]"] ;
59 -> 61 ;
62 [label="jobrole_ResearchSci <= 0.5\ngini = 0.381\nsamples = 8\nvalue = [3.016, 8.77]"] ;
48 -> 62 ;
63 [label="gini = -0.0\nsamples = 5\nvalue = [3.016, 0.0]"] ;
62 -> 63 ;
64 [label="gini = 0.0\nsamples = 3\nvalue = [0.0, 8.77]"] ;
62 -> 64 ;
65 [label="Age <= 44.5\ngini = 0.356\nsamples = 32\nvalue = [11.46, 38.003]"] ;
39 -> 65 ;
66 [label="EnvironmentSatisfaction <= 3.5\ngini = 0.219\nsamples = 22\nvalue = [5.428, 38.003]"] ;
65 -> 66 ;
67 [label="TrainingTimesLastYear <= 1.0\ngini = 0.093\nsamples = 15\nvalue = [1.809, 35.08]"] ;
66 -> 67 ;
68 [label="gini = 0.0\nsamples = 1\nvalue = [0.603, 0.0]"] ;
67 -> 68 ;
69 [label="EmployeeNumber <= 1767.0\ngini = 0.064\nsamples = 14\nvalue = [1.206, 35.08]"] ;
67 -> 69 ;
70 [label="jobrole_HealthcareRep <= 0.5\ngini = 0.033\nsamples = 13\nvalue = [0.603, 35.08]"] ;
69 -> 70 ;
71 [label="gini = 0.0\nsamples = 12\nvalue = [0.0, 35.08]"] ;
70 -> 71 ;
72 [label="gini = 0.0\nsamples = 1\nvalue = [0.603, 0.0]"] ;
70 -> 72 ;
73 [label="gini = 0.0\nsamples = 1\nvalue = [0.603, 0.0]"] ;
69 -> 73 ;
74 [label="DailyRate <= 1436.0\ngini = 0.494\nsamples = 7\nvalue = [3.619, 2.923]"] ;
66 -> 74 ;
75 [label="gini = 0.0\nsamples = 6\nvalue = [3.619, 0.0]"] ;
74 -> 75 ;
76 [label="gini = 0.0\nsamples = 1\nvalue = [0.0, 2.923]"] ;
74 -> 76 ;
77 [label="gini = 0.0\nsamples = 10\nvalue = [6.032, 0.0]"] ;
65 -> 77 ;
78 [label="degree_Technical <= 0.5\ngini = 0.377\nsamples = 123\nvalue = [69.364, 23.386]"] ;
38 -> 78 ;
79 [label="jobrole_SalesExec <= 0.5\ngini = 0.303\nsamples = 111\nvalue = [63.936, 14.616]"] ;
78 -> 79 ;
80 [label="MonthlyIncome <= 2053.0\ngini = 0.104\nsamples = 84\nvalue = [50.063, 2.923]"] ;
79 -> 80 ;
81 [label="gini = 0.0\nsamples = 1\nvalue = [0.0, 2.923]"] ;
80 -> 81 ;
82 [label="gini = 0.0\nsamples = 83\nvalue = [50.063, 0.0]"] ;
80 -> 82 ;
83 [label="YearsSinceLastPromotion <= 3.5\ngini = 0.496\nsamples = 27\nvalue = [13.873, 11.693]"] ;
79 -> 83 ;
84 [label="gini = 0.0\nsamples = 18\nvalue = [10.857, 0.0]"] ;
83 -> 84 ;
85 [label="MonthlyIncome <= 5085.0\ngini = 0.326\nsamples = 9\nvalue = [3.016, 11.693]"] ;
83 -> 85 ;
86 [label="gini = 0.0\nsamples = 4\nvalue = [2.413, 0.0]"] ;
85 -> 86 ;
87 [label="gender_Female <= 0.5\ngini = 0.093\nsamples = 5\nvalue = [0.603, 11.693]"] ;
85 -> 87 ;
88 [label="gini = 0.0\nsamples = 4\nvalue = [0.0, 11.693]"] ;
87 -> 88 ;
89 [label="gini = -0.0\nsamples = 1\nvalue = [0.603, 0.0]"] ;
87 -> 89 ;
90 [label="YearsInCurrentRole <= 6.5\ngini = 0.472\nsamples = 12\nvalue = [5.428, 8.77]"] ;
78 -> 90 ;
91 [label="gini = 0.0\nsamples = 6\nvalue = [3.619, 0.0]"] ;
90 -> 91 ;
92 [label="EnvironmentSatisfaction <= 2.5\ngini = 0.284\nsamples = 6\nvalue = [1.809, 8.77]"] ;
90 -> 92 ;
93 [label="dept_Sales <= 0.5\ngini = 0.12\nsamples = 4\nvalue = [0.603, 8.77]"] ;
92 -> 93 ;
94 [label="gini = 0.0\nsamples = 3\nvalue = [0.0, 8.77]"] ;
93 -> 94 ;
95 [label="gini = -0.0\nsamples = 1\nvalue = [0.603, 0.0]"] ;
93 -> 95 ;
96 [label="gini = -0.0\nsamples = 2\nvalue = [1.206, 0.0]"] ;
92 -> 96 ;
97 [label="YearsAtCompany <= 31.5\ngini = 0.327\nsamples = 414\nvalue = [237.044, 61.389]"] ;
37 -> 97 ;
98 [label="YearsInCurrentRole <= 1.5\ngini = 0.309\nsamples = 410\nvalue = [235.838, 55.543]"] ;
97 -> 98 ;
99 [label="DistanceFromHome <= 4.5\ngini = 0.48\nsamples = 58\nvalue = [30.761, 20.463]"] ;
98 -> 99 ;
100 [label="gini = 0.0\nsamples = 24\nvalue = [14.476, 0.0]"] ;
99 -> 100 ;
101 [label="PercentSalaryHike <= 14.5\ngini = 0.494\nsamples = 34\nvalue = [16.285, 20.463]"] ;
99 -> 101 ;
102 [label="Education <= 2.5\ngini = 0.361\nsamples = 15\nvalue = [5.428, 17.54]"] ;
101 -> 102 ;
103 [label="gini = 0.0\nsamples = 4\nvalue = [2.413, 0.0]"] ;
102 -> 103 ;
104 [label="MonthlyIncome <= 10423.0\ngini = 0.25\nsamples = 11\nvalue = [3.016, 17.54]"] ;
102 -> 104 ;
105 [label="DailyRate <= 206.5\ngini = 0.12\nsamples = 8\nvalue = [1.206, 17.54]"] ;
104 -> 105 ;
106 [label="gini = 0.0\nsamples = 1\nvalue = [0.603, 0.0]"] ;
105 -> 106 ;
107 [label="degree_Marketing <= 0.5\ngini = 0.064\nsamples = 7\nvalue = [0.603, 17.54]"] ;
105 -> 107 ;
108 [label="gini = 0.0\nsamples = 5\nvalue = [0.0, 14.616]"] ;
107 -> 108 ;
109 [label="StockOptionLevel <= 2.0\ngini = 0.284\nsamples = 2\nvalue = [0.603, 2.923]"] ;
107 -> 109 ;
110 [label="gini = 0.0\nsamples = 1\nvalue = [0.603, 0.0]"] ;
109 -> 110 ;
111 [label="gini = -0.0\nsamples = 1\nvalue = [0.0, 2.923]"] ;
109 -> 111 ;
112 [label="gini = 0.0\nsamples = 3\nvalue = [1.809, 0.0]"] ;
104 -> 112 ;
113 [label="DailyRate <= 332.5\ngini = 0.334\nsamples = 19\nvalue = [10.857, 2.923]"] ;
101 -> 113 ;
114 [label="gini = 0.0\nsamples = 1\nvalue = [0.0, 2.923]"] ;
113 -> 114 ;
115 [label="gini = 0.0\nsamples = 18\nvalue = [10.857, 0.0]"] ;
113 -> 115 ;
116 [label="DailyRate <= 1495.5\ngini = 0.249\nsamples = 352\nvalue = [205.076, 35.08]"] ;
98 -> 116 ;
117 [label="PercentSalaryHike <= 11.5\ngini = 0.234\nsamples = 351\nvalue = [205.076, 32.156]"] ;
116 -> 117 ;
118 [label="HourlyRate <= 63.0\ngini = 0.452\nsamples = 51\nvalue = [27.746, 14.616]"] ;
117 -> 118 ;
119 [label="gini = 0.0\nsamples = 25\nvalue = [15.079, 0.0]"] ;
118 -> 119 ;
120 [label="HourlyRate <= 73.5\ngini = 0.497\nsamples = 26\nvalue = [12.666, 14.616]"] ;
118 -> 120 ;
121 [label="EmployeeNumber <= 1077.0\ngini = 0.284\nsamples = 8\nvalue = [2.413, 11.693]"] ;
120 -> 121 ;
122 [label="gini = 0.0\nsamples = 3\nvalue = [1.809, 0.0]"] ;
121 -> 122 ;
123 [label="StockOptionLevel <= 1.5\ngini = 0.093\nsamples = 5\nvalue = [0.603, 11.693]"] ;
121 -> 123 ;
124 [label="gini = 0.0\nsamples = 4\nvalue = [0.0, 11.693]"] ;
123 -> 124 ;
125 [label="gini = -0.0\nsamples = 1\nvalue = [0.603, 0.0]"] ;
123 -> 125 ;
126 [label="Education <= 1.5\ngini = 0.345\nsamples = 18\nvalue = [10.254, 2.923]"] ;
120 -> 126 ;
127 [label="gini = 0.0\nsamples = 1\nvalue = [0.0, 2.923]"] ;
126 -> 127 ;
128 [label="gini = 0.0\nsamples = 17\nvalue = [10.254, 0.0]"] ;
126 -> 128 ;
129 [label="StockOptionLevel <= 2.5\ngini = 0.164\nsamples = 300\nvalue = [177.331, 17.54]"] ;
117 -> 129 ;
130 [label="EmployeeNumber <= 2040.0\ngini = 0.099\nsamples = 268\nvalue = [159.839, 8.77]"] ;
129 -> 130 ;
131 [label="MonthlyRate <= 2349.5\ngini = 0.069\nsamples = 264\nvalue = [158.029, 5.847]"] ;
130 -> 131 ;
132 [label="HourlyRate <= 89.5\ngini = 0.495\nsamples = 5\nvalue = [2.413, 2.923]"] ;
131 -> 132 ;
133 [label="gini = 0.0\nsamples = 4\nvalue = [2.413, 0.0]"] ;
132 -> 133 ;
134 [label="gini = 0.0\nsamples = 1\nvalue = [0.0, 2.923]"] ;
132 -> 134 ;
135 [label="YearsWithCurrManager <= 1.5\ngini = 0.036\nsamples = 259\nvalue = [155.617, 2.923]"] ;
131 -> 135 ;
136 [label="jobrole_LabTech <= 0.5\ngini = 0.265\nsamples = 27\nvalue = [15.682, 2.923]"] ;
135 -> 136 ;
137 [label="gini = -0.0\nsamples = 24\nvalue = [14.476, 0.0]"] ;
136 -> 137 ;
138 [label="HourlyRate <= 86.5\ngini = 0.414\nsamples = 3\nvalue = [1.206, 2.923]"] ;
136 -> 138 ;
139 [label="gini = 0.0\nsamples = 1\nvalue = [0.0, 2.923]"] ;
138 -> 139 ;
140 [label="gini = 0.0\nsamples = 2\nvalue = [1.206, 0.0]"] ;
138 -> 140 ;
141 [label="gini = 0.0\nsamples = 232\nvalue = [139.934, 0.0]"] ;
135 -> 141 ;
142 [label="ms_Divorced <= 0.5\ngini = 0.472\nsamples = 4\nvalue = [1.809, 2.923]"] ;
130 -> 142 ;
143 [label="gini = 0.0\nsamples = 3\nvalue = [1.809, 0.0]"] ;
142 -> 143 ;
144 [label="gini = 0.0\nsamples = 1\nvalue = [0.0, 2.923]"] ;
142 -> 144 ;
145 [label="DistanceFromHome <= 9.5\ngini = 0.445\nsamples = 32\nvalue = [17.492, 8.77]"] ;
129 -> 145 ;
146 [label="gini = 0.0\nsamples = 18\nvalue = [10.857, 0.0]"] ;
145 -> 146 ;
147 [label="HourlyRate <= 70.0\ngini = 0.49\nsamples = 14\nvalue = [6.635, 8.77]"] ;
145 -> 147 ;
148 [label="Education <= 3.5\ngini = 0.338\nsamples = 7\nvalue = [2.413, 8.77]"] ;
147 -> 148 ;
149 [label="NumCompaniesWorked <= 7.5\ngini = 0.12\nsamples = 4\nvalue = [0.603, 8.77]"] ;
148 -> 149 ;
150 [label="gini = 0.0\nsamples = 3\nvalue = [0.0, 8.77]"] ;
149 -> 150 ;
151 [label="gini = -0.0\nsamples = 1\nvalue = [0.603, 0.0]"] ;
149 -> 151 ;
152 [label="gini = -0.0\nsamples = 3\nvalue = [1.809, 0.0]"] ;
148 -> 152 ;
153 [label="gini = -0.0\nsamples = 7\nvalue = [4.222, 0.0]"] ;
147 -> 153 ;
154 [label="gini = 0.0\nsamples = 1\nvalue = [0.0, 2.923]"] ;
116 -> 154 ;
155 [label="YearsSinceLastPromotion <= 8.0\ngini = 0.284\nsamples = 4\nvalue = [1.206, 5.847]"] ;
97 -> 155 ;
156 [label="gini = 0.0\nsamples = 2\nvalue = [0.0, 5.847]"] ;
155 -> 156 ;
157 [label="gini = 0.0\nsamples = 2\nvalue = [1.206, 0.0]"] ;
155 -> 157 ;
158 [label="JobLevel <= 1.5\ngini = 0.414\nsamples = 298\nvalue = [120.03, 289.406]"] ;
0 -> 158 [labeldistance=2.5, labelangle=-45, headlabel="False"] ;
159 [label="MonthlyIncome <= 2475.0\ngini = 0.25\nsamples = 121\nvalue = [33.174, 192.938]"] ;
158 -> 159 ;
160 [label="EmployeeNumber <= 1956.5\ngini = 0.111\nsamples = 56\nvalue = [7.841, 125.702]"] ;
159 -> 160 ;
161 [label="Education <= 4.5\ngini = 0.087\nsamples = 53\nvalue = [6.032, 125.702]"] ;
160 -> 161 ;
162 [label="NumCompaniesWorked <= 0.5\ngini = 0.079\nsamples = 52\nvalue = [5.428, 125.702]"] ;
161 -> 162 ;
163 [label="WorkLifeBalance <= 2.5\ngini = 0.361\nsamples = 5\nvalue = [1.809, 5.847]"] ;
162 -> 163 ;
164 [label="gini = 0.0\nsamples = 3\nvalue = [1.809, 0.0]"] ;
163 -> 164 ;
165 [label="gini = -0.0\nsamples = 2\nvalue = [0.0, 5.847]"] ;
163 -> 165 ;
166 [label="DailyRate <= 888.0\ngini = 0.057\nsamples = 47\nvalue = [3.619, 119.855]"] ;
162 -> 166 ;
167 [label="gini = 0.0\nsamples = 27\nvalue = [0.0, 78.929]"] ;
166 -> 167 ;
168 [label="DailyRate <= 892.5\ngini = 0.149\nsamples = 20\nvalue = [3.619, 40.926]"] ;
166 -> 168 ;
169 [label="gini = 0.0\nsamples = 1\nvalue = [0.603, 0.0]"] ;
168 -> 169 ;
170 [label="jobrole_HR <= 0.5\ngini = 0.128\nsamples = 19\nvalue = [3.016, 40.926]"] ;
168 -> 170 ;
171 [label="YearsInCurrentRole <= 3.5\ngini = 0.105\nsamples = 18\nvalue = [2.413, 40.926]"] ;
170 -> 171 ;
172 [label="MonthlyRate <= 17204.5\ngini = 0.081\nsamples = 17\nvalue = [1.809, 40.926]"] ;
171 -> 172 ;
173 [label="EmployeeNumber <= 299.5\ngini = 0.031\nsamples = 14\nvalue = [0.603, 38.003]"] ;
172 -> 173 ;
174 [label="RelationshipSatisfaction <= 1.5\ngini = 0.284\nsamples = 2\nvalue = [0.603, 2.923]"] ;
173 -> 174 ;
175 [label="gini = 0.0\nsamples = 1\nvalue = [0.603, 0.0]"] ;
174 -> 175 ;
176 [label="gini = -0.0\nsamples = 1\nvalue = [0.0, 2.923]"] ;
174 -> 176 ;
177 [label="gini = 0.0\nsamples = 12\nvalue = [0.0, 35.08]"] ;
173 -> 177 ;
178 [label="HourlyRate <= 51.0\ngini = 0.414\nsamples = 3\nvalue = [1.206, 2.923]"] ;
172 -> 178 ;
179 [label="gini = 0.0\nsamples = 1\nvalue = [0.0, 2.923]"] ;
178 -> 179 ;
180 [label="gini = 0.0\nsamples = 2\nvalue = [1.206, 0.0]"] ;
178 -> 180 ;
181 [label="gini = 0.0\nsamples = 1\nvalue = [0.603, 0.0]"] ;
171 -> 181 ;
182 [label="gini = 0.0\nsamples = 1\nvalue = [0.603, 0.0]"] ;
170 -> 182 ;
183 [label="gini = 0.0\nsamples = 1\nvalue = [0.603, 0.0]"] ;
161 -> 183 ;
184 [label="gini = 0.0\nsamples = 3\nvalue = [1.809, 0.0]"] ;
160 -> 184 ;
185 [label="DailyRate <= 304.0\ngini = 0.398\nsamples = 65\nvalue = [25.333, 67.236]"] ;
159 -> 185 ;
186 [label="gini = 0.0\nsamples = 10\nvalue = [6.032, 0.0]"] ;
185 -> 186 ;
187 [label="EmployeeNumber <= 28.5\ngini = 0.347\nsamples = 55\nvalue = [19.301, 67.236]"] ;
185 -> 187 ;
188 [label="gini = 0.0\nsamples = 5\nvalue = [3.016, 0.0]"] ;
187 -> 188 ;
189 [label="MonthlyRate <= 16605.5\ngini = 0.314\nsamples = 50\nvalue = [16.285, 67.236]"] ;
187 -> 189 ;
190 [label="EmployeeNumber <= 1239.0\ngini = 0.441\nsamples = 27\nvalue = [11.46, 23.386]"] ;
189 -> 190 ;
191 [label="degree_Medical <= 0.5\ngini = 0.306\nsamples = 17\nvalue = [5.428, 23.386]"] ;
190 -> 191 ;
192 [label="TrainingTimesLastYear <= 1.5\ngini = 0.17\nsamples = 12\nvalue = [2.413, 23.386]"] ;
191 -> 192 ;
193 [label="gini = 0.0\nsamples = 2\nvalue = [1.206, 0.0]"] ;
192 -> 193 ;
194 [label="DailyRate <= 424.5\ngini = 0.093\nsamples = 10\nvalue = [1.206, 23.386]"] ;
192 -> 194 ;
195 [label="gini = 0.0\nsamples = 1\nvalue = [0.603, 0.0]"] ;
194 -> 195 ;
196 [label="WorkLifeBalance <= 3.5\ngini = 0.049\nsamples = 9\nvalue = [0.603, 23.386]"] ;
194 -> 196 ;
197 [label="gini = 0.0\nsamples = 8\nvalue = [0.0, 23.386]"] ;
196 -> 197 ;
198 [label="gini = 0.0\nsamples = 1\nvalue = [0.603, 0.0]"] ;
196 -> 198 ;
199 [label="gini = 0.0\nsamples = 5\nvalue = [3.016, 0.0]"] ;
191 -> 199 ;
200 [label="gini = 0.0\nsamples = 10\nvalue = [6.032, 0.0]"] ;
190 -> 200 ;
201 [label="MonthlyIncome <= 2742.0\ngini = 0.179\nsamples = 23\nvalue = [4.825, 43.849]"] ;
189 -> 201 ;
202 [label="YearsWithCurrManager <= 0.5\ngini = 0.472\nsamples = 8\nvalue = [3.619, 5.847]"] ;
201 -> 202 ;
203 [label="gini = 0.0\nsamples = 2\nvalue = [0.0, 5.847]"] ;
202 -> 203 ;
204 [label="gini = 0.0\nsamples = 6\nvalue = [3.619, 0.0]"] ;
202 -> 204 ;
205 [label="DailyRate <= 1452.5\ngini = 0.06\nsamples = 15\nvalue = [1.206, 38.003]"] ;
201 -> 205 ;
206 [label="NumCompaniesWorked <= 0.5\ngini = 0.031\nsamples = 14\nvalue = [0.603, 38.003]"] ;
205 -> 206 ;
207 [label="ms_Married <= 0.5\ngini = 0.284\nsamples = 2\nvalue = [0.603, 2.923]"] ;
206 -> 207 ;
208 [label="gini = 0.0\nsamples = 1\nvalue = [0.603, 0.0]"] ;
207 -> 208 ;
209 [label="gini = -0.0\nsamples = 1\nvalue = [0.0, 2.923]"] ;
207 -> 209 ;
210 [label="gini = 0.0\nsamples = 12\nvalue = [0.0, 35.08]"] ;
206 -> 210 ;
211 [label="gini = 0.0\nsamples = 1\nvalue = [0.603, 0.0]"] ;
205 -> 211 ;
212 [label="StockOptionLevel <= 0.5\ngini = 0.499\nsamples = 177\nvalue = [86.856, 96.469]"] ;
158 -> 212 ;
213 [label="dept_Sales <= 0.5\ngini = 0.423\nsamples = 81\nvalue = [33.174, 76.006]"] ;
212 -> 213 ;
214 [label="NumCompaniesWorked <= 6.5\ngini = 0.491\nsamples = 44\nvalue = [22.92, 17.54]"] ;
213 -> 214 ;
215 [label="Age <= 29.5\ngini = 0.214\nsamples = 36\nvalue = [21.111, 2.923]"] ;
214 -> 215 ;
216 [label="MonthlyIncome <= 5873.0\ngini = 0.284\nsamples = 2\nvalue = [0.603, 2.923]"] ;
215 -> 216 ;
217 [label="gini = 0.0\nsamples = 1\nvalue = [0.603, 0.0]"] ;
216 -> 217 ;
218 [label="gini = -0.0\nsamples = 1\nvalue = [0.0, 2.923]"] ;
216 -> 218 ;
219 [label="gini = 0.0\nsamples = 34\nvalue = [20.508, 0.0]"] ;
215 -> 219 ;
220 [label="biztravel_Travel_Rarely <= 0.5\ngini = 0.196\nsamples = 8\nvalue = [1.809, 14.616]"] ;
214 -> 220 ;
221 [label="gini = 0.0\nsamples = 2\nvalue = [1.206, 0.0]"] ;
220 -> 221 ;
222 [label="YearsWithCurrManager <= 10.5\ngini = 0.076\nsamples = 6\nvalue = [0.603, 14.616]"] ;
220 -> 222 ;
223 [label="gini = 0.0\nsamples = 5\nvalue = [0.0, 14.616]"] ;
222 -> 223 ;
224 [label="gini = -0.0\nsamples = 1\nvalue = [0.603, 0.0]"] ;
222 -> 224 ;
225 [label="MonthlyIncome <= 4534.0\ngini = 0.254\nsamples = 37\nvalue = [10.254, 58.466]"] ;
213 -> 225 ;
226 [label="gini = 0.0\nsamples = 4\nvalue = [2.413, 0.0]"] ;
225 -> 226 ;
227 [label="DailyRate <= 208.0\ngini = 0.209\nsamples = 33\nvalue = [7.841, 58.466]"] ;
225 -> 227 ;
228 [label="gini = 0.0\nsamples = 2\nvalue = [1.206, 0.0]"] ;
227 -> 228 ;
229 [label="Education <= 1.5\ngini = 0.183\nsamples = 31\nvalue = [6.635, 58.466]"] ;
227 -> 229 ;
230 [label="gini = 0.0\nsamples = 2\nvalue = [1.206, 0.0]"] ;
229 -> 230 ;
231 [label="RelationshipSatisfaction <= 3.5\ngini = 0.155\nsamples = 29\nvalue = [5.428, 58.466]"] ;
229 -> 231 ;
232 [label="YearsInCurrentRole <= 1.0\ngini = 0.068\nsamples = 20\nvalue = [1.809, 49.696]"] ;
231 -> 232 ;
233 [label="WorkLifeBalance <= 2.5\ngini = 0.284\nsamples = 4\nvalue = [1.206, 5.847]"] ;
232 -> 233 ;
234 [label="gini = 0.0\nsamples = 2\nvalue = [0.0, 5.847]"] ;
233 -> 234 ;
235 [label="gini = -0.0\nsamples = 2\nvalue = [1.206, 0.0]"] ;
233 -> 235 ;
236 [label="Age <= 29.5\ngini = 0.027\nsamples = 16\nvalue = [0.603, 43.849]"] ;
232 -> 236 ;
237 [label="MonthlyRate <= 6074.0\ngini = 0.284\nsamples = 2\nvalue = [0.603, 2.923]"] ;
236 -> 237 ;
238 [label="gini = 0.0\nsamples = 1\nvalue = [0.603, 0.0]"] ;
237 -> 238 ;
239 [label="gini = -0.0\nsamples = 1\nvalue = [0.0, 2.923]"] ;
237 -> 239 ;
240 [label="gini = 0.0\nsamples = 14\nvalue = [0.0, 40.926]"] ;
236 -> 240 ;
241 [label="HourlyRate <= 76.0\ngini = 0.414\nsamples = 9\nvalue = [3.619, 8.77]"] ;
231 -> 241 ;
242 [label="gini = -0.0\nsamples = 5\nvalue = [3.016, 0.0]"] ;
241 -> 242 ;
243 [label="HourlyRate <= 91.5\ngini = 0.12\nsamples = 4\nvalue = [0.603, 8.77]"] ;
241 -> 243 ;
244 [label="gini = 0.0\nsamples = 3\nvalue = [0.0, 8.77]"] ;
243 -> 244 ;
245 [label="gini = -0.0\nsamples = 1\nvalue = [0.603, 0.0]"] ;
243 -> 245 ;
246 [label="YearsInCurrentRole <= 2.5\ngini = 0.4\nsamples = 96\nvalue = [53.682, 20.463]"] ;
212 -> 246 ;
247 [label="YearsInCurrentRole <= 1.5\ngini = 0.478\nsamples = 25\nvalue = [11.46, 17.54]"] ;
246 -> 247 ;
248 [label="gini = 0.0\nsamples = 11\nvalue = [6.635, 0.0]"] ;
247 -> 248 ;
249 [label="EmployeeNumber <= 1390.5\ngini = 0.338\nsamples = 14\nvalue = [4.825, 17.54]"] ;
247 -> 249 ;
250 [label="TotalWorkingYears <= 12.0\ngini = 0.17\nsamples = 9\nvalue = [1.809, 17.54]"] ;
249 -> 250 ;
251 [label="gini = 0.0\nsamples = 5\nvalue = [0.0, 14.616]"] ;
250 -> 251 ;
252 [label="YearsSinceLastPromotion <= 0.5\ngini = 0.472\nsamples = 4\nvalue = [1.809, 2.923]"] ;
250 -> 252 ;
253 [label="gini = 0.0\nsamples = 3\nvalue = [1.809, 0.0]"] ;
252 -> 253 ;
254 [label="gini = 0.0\nsamples = 1\nvalue = [0.0, 2.923]"] ;
252 -> 254 ;
255 [label="gini = 0.0\nsamples = 5\nvalue = [3.016, 0.0]"] ;
249 -> 255 ;
256 [label="TrainingTimesLastYear <= 5.5\ngini = 0.121\nsamples = 71\nvalue = [42.222, 2.923]"] ;
246 -> 256 ;
257 [label="gini = 0.0\nsamples = 69\nvalue = [41.618, 0.0]"] ;
256 -> 257 ;
258 [label="gender_Male <= 0.5\ngini = 0.284\nsamples = 2\nvalue = [0.603, 2.923]"] ;
256 -> 258 ;
259 [label="gini = 0.0\nsamples = 1\nvalue = [0.603, 0.0]"] ;
258 -> 259 ;
260 [label="gini = -0.0\nsamples = 1\nvalue = [0.0, 2.923]"] ;
258 -> 260 ;
}